%YAML:1.0
---
opencv_ml_svm:
   format: 3
   svmType: C_SVC
   kernel:
      type: RBF
      gamma: 5.0624999999999998e-01
   C: 1.2500000000000000e+01
   term_criteria: { epsilon:1.1920928955078125e-07, iterations:1000 }
   var_count: 324
   class_count: 11
   class_labels: !!opencv-matrix
      rows: 11
      cols: 1
      dt: i
      data: [ 0, 1, 2, 3, 5, 6, 7, 8, 10, 11, 12 ]
   sv_total: 11
   support_vectors:
      - [ 4.85186964e-01, 4.85186964e-01, 2.91051298e-01, 4.88465950e-02,
          8.84373784e-02, 4.85186964e-01, 1.48309976e-01, 1.54672191e-01,
          3.84834260e-01, 4.78268206e-01, 4.78268206e-01, 2.49722302e-01,
          9.53819454e-02, 3.90578359e-01, 4.78268206e-01, 2.49584451e-01,
          7.92339221e-02, 1.28144234e-01, 4.68090206e-01, 4.68090206e-01,
          6.09744452e-02, 4.87478673e-02, 4.26208377e-01, 1.98685214e-01,
          1.39200343e-02, 4.18879777e-01, 3.92721534e-01, 4.42463398e-01,
          4.42463398e-01, 3.86320859e-01, 4.79729101e-02, 1.76837936e-01,
          4.42463398e-01, 4.42463398e-01, 1.56874254e-01, 7.11229146e-02,
          4.12488639e-01, 5.43761671e-01, 5.43761671e-01, 1.14567019e-01,
          1.81124717e-01, 4.25347209e-01, 6.31550327e-02, 4.28427868e-02,
          1.98343638e-02, 3.79170477e-01, 3.79170477e-01, 3.79170477e-01,
          3.10806334e-01, 3.79170477e-01, 3.79170477e-01, 3.79170477e-01,
          1.71765625e-01, 8.65239128e-02, 1.22919224e-01, 3.35420102e-01,
          4.45417255e-01, 3.46777081e-01, 2.75469840e-01, 4.45417255e-01,
          4.45417255e-01, 2.23242387e-01, 1.63615957e-01, 2.70611178e-02,
          4.60352987e-01, 4.60352987e-01, 3.73248696e-01, 4.60352987e-01,
          4.60352987e-01, 8.60964879e-02, 5.29373437e-03, 1.46545526e-02,
          7.92849995e-03, 4.83171761e-01, 4.83171761e-01, 1.39067769e-01,
          1.73722371e-01, 4.34772372e-01, 4.83171761e-01, 2.36714289e-01,
          1.29024861e-02, 1.22919224e-01, 3.35420102e-01, 4.45417255e-01,
          3.46777081e-01, 2.75469840e-01, 4.45417255e-01, 4.45417255e-01,
          2.23242387e-01, 1.63615957e-01, 2.70611178e-02, 4.60352987e-01,
          4.60352987e-01, 3.73248696e-01, 4.60352987e-01, 4.60352987e-01,
          8.60964879e-02, 5.29373437e-03, 1.46545526e-02, 7.92849995e-03,
          4.83171761e-01, 4.83171761e-01, 1.39067769e-01, 1.73722371e-01,
          4.34772372e-01, 4.83171761e-01, 2.36714289e-01, 1.29024861e-02,
          1.41607478e-01, 1.07131556e-01, 1.94120035e-01, 2.00761437e-01,
          3.40287179e-01, 1.18433170e-01, 5.25638223e-01, 5.25638223e-01,
          4.50355560e-01, 6.73833713e-02, 6.49350226e-01, 6.49350226e-01,
          2.65046626e-01, 2.33786270e-01, 1.18804798e-01, 6.39662668e-02,
          4.23175506e-02, 2.76104417e-02, 2.31755106e-03, 5.53288400e-01,
          5.53288400e-01, 2.20270418e-02, 5.39174210e-03, 1.77317783e-02,
          5.53288400e-01, 2.74318784e-01, 2.38792342e-03, 5.04842438e-02,
          3.66378352e-02, 3.60225260e-01, 5.13098657e-01, 2.23179162e-01,
          3.03936079e-02, 1.43801600e-01, 5.13098657e-01, 5.13098657e-01,
          1.49143159e-01, 5.52979410e-01, 5.52979410e-01, 1.33907259e-01,
          6.10534512e-02, 5.99233061e-02, 3.51251513e-02, 1.68500423e-01,
          5.52979410e-01, 2.28839740e-02, 4.91860002e-01, 4.91860002e-01,
          1.55269772e-01, 3.63721967e-01, 1.80986702e-01, 4.91860002e-01,
          2.81773955e-01, 1.51633443e-02, 4.68090206e-01, 4.68090206e-01,
          6.09744452e-02, 4.87478673e-02, 4.26208377e-01, 1.98685214e-01,
          1.39200343e-02, 4.18879777e-01, 3.92721534e-01, 1.45054206e-01,
          7.41256401e-02, 1.64913945e-02, 3.28538060e-01, 5.24994373e-01,
          4.72602099e-02, 3.88540775e-02, 5.38754523e-01, 5.38754523e-01,
          1.56574458e-01, 3.44521329e-02, 1.62673995e-01, 5.62425613e-01,
          4.75257486e-01, 4.96913753e-02, 1.24824814e-01, 5.08892119e-01,
          3.50720167e-01, 3.79170477e-01, 3.79170477e-01, 3.79170477e-01,
          3.10806334e-01, 3.79170477e-01, 3.79170477e-01, 3.79170477e-01,
          1.71765625e-01, 8.65239128e-02, 5.32080699e-03, 6.94167148e-03,
          7.35549182e-02, 4.33500201e-01, 4.33500201e-01, 2.42015928e-01,
          4.33500201e-01, 4.33500201e-01, 4.24171448e-01, 1.75159350e-02,
          1.22381328e-02, 1.62723809e-01, 5.20014882e-01, 7.90549293e-02,
          1.04374200e-01, 5.62870026e-01, 5.62870026e-01, 2.15032756e-01,
          7.92849995e-03, 4.83171761e-01, 4.83171761e-01, 1.39067769e-01,
          1.73722371e-01, 4.34772372e-01, 4.83171761e-01, 2.36714289e-01,
          1.29024861e-02, 6.04992674e-04, 5.13574965e-02, 1.63304821e-01,
          5.20883262e-01, 4.02120352e-01, 2.92857409e-01, 5.20883262e-01,
          4.18782502e-01, 2.82851048e-03, 6.77294377e-03, 2.37769261e-02,
          8.75810683e-02, 4.88315105e-01, 4.88315105e-01, 4.00290757e-01,
          4.88315105e-01, 3.24028075e-01, 7.91155025e-02, 7.92849995e-03,
          4.83171761e-01, 4.83171761e-01, 1.39067769e-01, 1.73722371e-01,
          4.34772372e-01, 4.83171761e-01, 2.36714289e-01, 1.29024861e-02,
          6.04992674e-04, 5.13574965e-02, 1.63304821e-01, 5.20883262e-01,
          4.02120352e-01, 2.92857409e-01, 5.20883262e-01, 4.18782502e-01,
          2.82851048e-03, 6.77294377e-03, 2.37769261e-02, 8.75810683e-02,
          4.88315105e-01, 4.88315105e-01, 4.00290757e-01, 4.88315105e-01,
          3.24028075e-01, 7.91155025e-02, 2.31755106e-03, 5.53288400e-01,
          5.53288400e-01, 2.20270418e-02, 5.39174210e-03, 1.77317783e-02,
          5.53288400e-01, 2.74318784e-01, 2.38792342e-03, 2.06617396e-02,
          2.02479567e-02, 1.26852289e-01, 2.83600427e-02, 8.15294236e-02,
          5.88891581e-02, 6.94652379e-01, 6.94652379e-01, 1.15773072e-02,
          4.45584059e-01, 5.42458236e-01, 3.71497929e-01, 1.91897184e-01,
          4.02277321e-01, 1.97012126e-01, 2.85828322e-01, 2.07095698e-01,
          4.14045565e-02, 2.28839740e-02, 4.91860002e-01, 4.91860002e-01,
          1.55269772e-01, 3.63721967e-01, 1.80986702e-01, 4.91860002e-01,
          2.81773955e-01, 1.51633443e-02, 5.07327676e-01, 2.36110985e-01,
          2.92120669e-02, 2.12794133e-02, 8.34767222e-02, 2.17828616e-01,
          5.66404521e-01, 5.43781042e-01, 9.47558135e-02, 6.63752913e-01,
          6.63752913e-01, 7.37404600e-02, 4.76685390e-02, 1.24012053e-01,
          2.55403310e-01, 1.35462612e-01, 5.50395437e-02, 5.03836200e-02 ]
      - [ 5.35433114e-01, 5.35433114e-01, 3.83523881e-01, 1.79918274e-01,
          2.26761773e-02, 1.15921132e-01, 1.67829618e-01, 1.34284079e-01,
          4.26219910e-01, 3.76746565e-01, 3.76746565e-01, 3.76746565e-01,
          3.76746565e-01, 2.12696075e-01, 3.76746565e-01, 3.76746565e-01,
          1.38133258e-01, 2.83350974e-01, 4.27601069e-01, 3.27098101e-01,
          4.27601069e-01, 4.27601069e-01, 1.51381955e-01, 3.19936305e-01,
          1.76777259e-01, 2.89618634e-02, 4.27601069e-01, 4.61929440e-01,
          4.84812111e-01, 4.84653115e-01, 9.80665237e-02, 5.95073355e-03,
          2.40669381e-02, 3.36065330e-02, 3.79928023e-01, 3.95147145e-01,
          9.96806920e-02, 2.94436395e-01, 3.89174759e-01, 3.69277358e-01,
          2.89591908e-01, 2.70971984e-01, 3.89174759e-01, 3.89174759e-01,
          3.89174759e-01, 5.04206717e-02, 5.32408178e-01, 5.32408178e-01,
          5.32408178e-01, 8.20538327e-02, 1.41136497e-01, 2.81082690e-01,
          1.62320033e-01, 9.87817496e-02, 3.60181518e-02, 6.62536561e-01,
          6.62536561e-01, 2.62309432e-01, 5.09867705e-02, 6.26180619e-02,
          1.44001141e-01, 1.24986328e-01, 4.99414839e-02, 5.02978005e-02,
          1.99820995e-01, 3.34818721e-01, 1.98433265e-01, 1.36267409e-01,
          7.70464987e-02, 5.97659051e-01, 5.97659051e-01, 2.47380242e-01,
          2.19368502e-01, 1.93422064e-01, 4.34502274e-01, 4.34502274e-01,
          3.35210085e-01, 1.04956955e-01, 2.72196710e-01, 4.34502274e-01,
          3.82459819e-01, 3.60181518e-02, 6.62536561e-01, 6.62536561e-01,
          2.62309432e-01, 5.09867705e-02, 6.26180619e-02, 1.44001141e-01,
          1.24986328e-01, 4.99414839e-02, 5.02978005e-02, 1.99820995e-01,
          3.34818721e-01, 1.98433265e-01, 1.36267409e-01, 7.70464987e-02,
          5.97659051e-01, 5.97659051e-01, 2.47380242e-01, 2.19368502e-01,
          1.93422064e-01, 4.34502274e-01, 4.34502274e-01, 3.35210085e-01,
          1.04956955e-01, 2.72196710e-01, 4.34502274e-01, 3.82459819e-01,
          3.23546901e-02, 1.23773754e-01, 6.96289599e-01, 6.96289599e-01,
          5.49485758e-02, 1.05283351e-03, 2.99062729e-02, 4.53807600e-02,
          3.27087827e-02, 1.89585358e-01, 6.87862709e-02, 2.38859937e-01,
          4.72335666e-01, 7.16516450e-02, 4.01104800e-03, 4.72335666e-01,
          4.72335666e-01, 4.72335666e-01, 5.36011159e-01, 2.99271531e-02,
          1.05680749e-01, 4.61161673e-01, 2.94354528e-01, 7.42412135e-02,
          4.02784161e-02, 3.18619460e-01, 5.36011159e-01, 3.03316284e-02,
          6.25553206e-02, 6.48238778e-01, 6.48238778e-01, 3.78762633e-01,
          9.96829942e-03, 4.81329933e-02, 4.73171212e-02, 1.23224184e-02,
          2.07259841e-02, 1.31448999e-03, 8.47119391e-02, 7.00070024e-01,
          7.00070024e-01, 1.02314167e-02, 9.22552310e-03, 3.67515199e-02,
          6.05615787e-02, 1.77898228e-01, 4.56720544e-03, 1.01364078e-02,
          6.15360558e-01, 6.15360558e-01, 2.05228254e-01, 1.37376543e-02,
          4.15189303e-02, 4.00894016e-01, 4.27601069e-01, 3.27098101e-01,
          4.27601069e-01, 4.27601069e-01, 1.51381955e-01, 3.19936305e-01,
          1.76777259e-01, 2.89618634e-02, 4.27601069e-01, 3.87514591e-01,
          5.33374213e-02, 7.39959851e-02, 6.50210455e-02, 1.28458627e-02,
          2.09368113e-03, 1.23574510e-02, 6.44410074e-01, 6.44410074e-01,
          8.25674683e-02, 3.32604088e-02, 1.68782845e-01, 4.20018196e-01,
          1.33852810e-01, 1.71820670e-02, 2.52662897e-02, 6.17316604e-01,
          6.17316604e-01, 5.04206717e-02, 5.32408178e-01, 5.32408178e-01,
          5.32408178e-01, 8.20538327e-02, 1.41136497e-01, 2.81082690e-01,
          1.62320033e-01, 9.87817496e-02, 8.55192021e-02, 1.39797747e-01,
          4.53306586e-01, 4.53306586e-01, 1.73280448e-01, 2.15641469e-01,
          2.64840096e-01, 4.53306586e-01, 4.53306586e-01, 4.89980634e-03,
          2.07964294e-02, 6.85931072e-02, 1.42112330e-01, 5.44444174e-02,
          1.69204660e-02, 3.13215464e-01, 6.76367342e-01, 6.39580309e-01,
          2.19368502e-01, 1.93422064e-01, 4.34502274e-01, 4.34502274e-01,
          3.35210085e-01, 1.04956955e-01, 2.72196710e-01, 4.34502274e-01,
          3.82459819e-01, 8.93194377e-02, 4.03174385e-03, 3.52278620e-01,
          6.28735960e-01, 6.28735960e-01, 1.19981326e-01, 3.29589620e-02,
          1.83805674e-01, 1.47458076e-01, 1.50588974e-02, 4.61419523e-02,
          2.17437118e-01, 4.78754818e-01, 4.78754818e-01, 1.56690925e-01,
          4.78754818e-01, 4.78754818e-01, 6.48603737e-02, 2.19368502e-01,
          1.93422064e-01, 4.34502274e-01, 4.34502274e-01, 3.35210085e-01,
          1.04956955e-01, 2.72196710e-01, 4.34502274e-01, 3.82459819e-01,
          8.93194377e-02, 4.03174385e-03, 3.52278620e-01, 6.28735960e-01,
          6.28735960e-01, 1.19981326e-01, 3.29589620e-02, 1.83805674e-01,
          1.47458076e-01, 1.50588974e-02, 4.61419523e-02, 2.17437118e-01,
          4.78754818e-01, 4.78754818e-01, 1.56690925e-01, 4.78754818e-01,
          4.78754818e-01, 6.48603737e-02, 5.36011159e-01, 2.99271531e-02,
          1.05680749e-01, 4.61161673e-01, 2.94354528e-01, 7.42412135e-02,
          4.02784161e-02, 3.18619460e-01, 5.36011159e-01, 4.37523603e-01,
          5.89246340e-02, 7.48347118e-02, 4.37523603e-01, 4.37523603e-01,
          1.71105996e-01, 1.20624620e-02, 4.37523603e-01, 4.37523603e-01,
          3.59290183e-01, 3.59290183e-01, 3.59290183e-01, 3.59290183e-01,
          3.59290183e-01, 3.59290183e-01, 3.59290183e-01, 2.43068680e-01,
          1.83581159e-01, 1.77898228e-01, 4.56720544e-03, 1.01364078e-02,
          6.15360558e-01, 6.15360558e-01, 2.05228254e-01, 1.37376543e-02,
          4.15189303e-02, 4.00894016e-01, 2.21203506e-01, 8.53629038e-02,
          6.17495589e-02, 5.33575602e-02, 4.60078001e-01, 4.60078001e-01,
          2.92983979e-01, 4.60078001e-01, 4.60078001e-01, 3.70149046e-01,
          3.70149046e-01, 1.33927375e-01, 3.67715389e-01, 3.70149046e-01,
          3.70149046e-01, 3.70149046e-01, 3.70149046e-01, 1.45220727e-01 ]
      - [ 4.53096390e-01, 4.53096390e-01, 4.38554555e-01, 4.49032821e-02,
          8.67782831e-02, 4.53096390e-01, 3.18537623e-01, 4.90521640e-02,
          2.71727711e-01, 4.15867895e-01, 4.15867895e-01, 3.99944782e-01,
          3.81773971e-02, 1.18724316e-01, 4.15867895e-01, 4.15867895e-01,
          2.96101183e-01, 2.02178925e-01, 3.50829929e-01, 3.50829929e-01,
          3.50829929e-01, 1.08819999e-01, 3.50829929e-01, 3.50829929e-01,
          3.50829929e-01, 3.50829929e-01, 3.50829929e-01, 4.21579331e-02,
          4.66629803e-01, 4.66629803e-01, 2.31905699e-01, 3.63020226e-02,
          4.66629803e-01, 4.66629803e-01, 2.15846479e-01, 1.44570529e-01,
          1.84521809e-01, 3.81867021e-01, 3.81867021e-01, 3.81867021e-01,
          1.92845255e-01, 2.47230038e-01, 3.81867021e-01, 3.81867021e-01,
          3.67032379e-01, 3.67184788e-01, 3.67184788e-01, 2.99574047e-01,
          1.50225431e-01, 3.67184788e-01, 3.53646338e-01, 2.91256189e-01,
          3.67184788e-01, 3.67184788e-01, 2.46953845e-01, 4.00100917e-01,
          4.00100917e-01, 3.59765202e-01, 5.73974401e-02, 4.00100917e-01,
          4.00100917e-01, 3.95828784e-01, 7.27189183e-02, 4.53688473e-01,
          4.53688473e-01, 3.43134433e-01, 4.53688473e-01, 4.53688473e-01,
          1.36845246e-01, 2.55083051e-02, 7.27219507e-02, 1.72418758e-01,
          4.74889338e-01, 1.15390174e-01, 7.11554382e-03, 2.80145437e-01,
          4.74889338e-01, 4.74889338e-01, 8.31585098e-03, 3.55103761e-02,
          4.74889338e-01, 2.46953845e-01, 4.00100917e-01, 4.00100917e-01,
          3.59765202e-01, 5.73974401e-02, 4.00100917e-01, 4.00100917e-01,
          3.95828784e-01, 7.27189183e-02, 4.53688473e-01, 4.53688473e-01,
          3.43134433e-01, 4.53688473e-01, 4.53688473e-01, 1.36845246e-01,
          2.55083051e-02, 7.27219507e-02, 1.72418758e-01, 4.74889338e-01,
          1.15390174e-01, 7.11554382e-03, 2.80145437e-01, 4.74889338e-01,
          4.74889338e-01, 8.31585098e-03, 3.55103761e-02, 4.74889338e-01,
          1.80034712e-01, 4.75821465e-01, 4.75821465e-01, 3.27546924e-01,
          2.34911248e-01, 1.92646757e-01, 1.73891157e-01, 4.75821465e-01,
          2.31938794e-01, 4.33600873e-01, 4.33600873e-01, 4.10203993e-01,
          4.74491045e-02, 1.84469163e-01, 4.33600873e-01, 4.33600873e-01,
          1.78461164e-01, 8.50521252e-02, 5.03236473e-01, 1.36550933e-01,
          5.46073467e-02, 1.34721160e-01, 5.03236473e-01, 5.03236473e-01,
          2.06732601e-01, 8.15033317e-02, 3.82196397e-01, 2.13964675e-02,
          1.72895402e-01, 4.87884372e-01, 4.87884372e-01, 1.10196576e-01,
          1.99087393e-02, 1.05997110e-02, 4.87884372e-01, 4.87884372e-01,
          6.29912764e-02, 2.40536869e-01, 4.20742899e-01, 4.20742899e-01,
          2.79280066e-01, 9.39078704e-02, 3.72902960e-01, 4.20742899e-01,
          4.20742899e-01, 4.83905882e-01, 2.70394031e-02, 3.87435779e-02,
          3.91552925e-01, 4.83905882e-01, 1.44569635e-01, 1.12752512e-01,
          3.21733654e-01, 4.83905882e-01, 3.50829929e-01, 3.50829929e-01,
          3.50829929e-01, 1.08819999e-01, 3.50829929e-01, 3.50829929e-01,
          3.50829929e-01, 3.50829929e-01, 3.50829929e-01, 3.53423059e-01,
          3.96644533e-01, 3.96644533e-01, 3.96644533e-01, 2.65196055e-01,
          1.73043683e-02, 1.17757909e-01, 3.96644533e-01, 3.96644533e-01,
          3.92390341e-02, 5.19024096e-02, 2.12044179e-01, 5.01081288e-01,
          1.23934887e-01, 1.82526689e-02, 5.01081288e-01, 5.01081288e-01,
          4.20545995e-01, 3.67184788e-01, 3.67184788e-01, 2.99574047e-01,
          1.50225431e-01, 3.67184788e-01, 3.53646338e-01, 2.91256189e-01,
          3.67184788e-01, 3.67184788e-01, 3.32778692e-01, 3.32778692e-01,
          3.32778692e-01, 3.32778692e-01, 3.32778692e-01, 3.32778692e-01,
          3.32778692e-01, 3.32778692e-01, 3.32778692e-01, 1.23473704e-01,
          3.88515592e-01, 2.43486270e-01, 1.58682063e-01, 4.68179360e-02,
          4.96615410e-01, 4.96615410e-01, 4.96615410e-01, 4.80821468e-02,
          4.74889338e-01, 1.15390174e-01, 7.11554382e-03, 2.80145437e-01,
          4.74889338e-01, 4.74889338e-01, 8.31585098e-03, 3.55103761e-02,
          4.74889338e-01, 4.42916155e-01, 3.32187898e-02, 2.43796930e-02,
          3.61137152e-01, 4.42916155e-01, 4.42916155e-01, 6.23563193e-02,
          2.73624778e-01, 4.42916155e-01, 1.62433773e-01, 2.48273939e-01,
          2.64470130e-01, 1.15012012e-01, 3.51813287e-01, 4.18583691e-01,
          4.18583691e-01, 4.18583691e-01, 4.18583691e-01, 4.74889338e-01,
          1.15390174e-01, 7.11554382e-03, 2.80145437e-01, 4.74889338e-01,
          4.74889338e-01, 8.31585098e-03, 3.55103761e-02, 4.74889338e-01,
          4.42916155e-01, 3.32187898e-02, 2.43796930e-02, 3.61137152e-01,
          4.42916155e-01, 4.42916155e-01, 6.23563193e-02, 2.73624778e-01,
          4.42916155e-01, 1.62433773e-01, 2.48273939e-01, 2.64470130e-01,
          1.15012012e-01, 3.51813287e-01, 4.18583691e-01, 4.18583691e-01,
          4.18583691e-01, 4.18583691e-01, 5.03236473e-01, 1.36550933e-01,
          5.46073467e-02, 1.34721160e-01, 5.03236473e-01, 5.03236473e-01,
          2.06732601e-01, 8.15033317e-02, 3.82196397e-01, 3.83807361e-01,
          2.53874630e-01, 3.82687420e-01, 4.07871872e-01, 4.07871872e-01,
          6.20336495e-02, 7.70701915e-02, 3.58955443e-01, 4.07871872e-01,
          8.17523077e-02, 2.36809790e-01, 3.46555173e-01, 2.93006748e-01,
          6.63840473e-02, 1.02838017e-01, 4.87093896e-01, 4.87093896e-01,
          4.86739963e-01, 4.83905882e-01, 2.70394031e-02, 3.87435779e-02,
          3.91552925e-01, 4.83905882e-01, 1.44569635e-01, 1.12752512e-01,
          3.21733654e-01, 4.83905882e-01, 4.70039666e-01, 4.70039666e-01,
          1.61161155e-01, 1.35293439e-01, 4.70039666e-01, 4.70039666e-01,
          1.61396742e-01, 3.07313856e-02, 2.00712338e-01, 4.79125559e-01,
          4.79125559e-01, 1.18458003e-01, 4.63493578e-02, 7.62179792e-02,
          4.79125559e-01, 4.79125559e-01, 2.34340325e-01, 8.00746959e-03 ]
      - [ 4.11849469e-01, 4.11849469e-01, 4.11849469e-01, 4.11849469e-01,
          4.11849469e-01, 3.29133034e-01, 1.21664733e-01, 8.04985836e-02,
          1.34814560e-01, 4.53899771e-01, 4.53899771e-01, 9.60027426e-02,
          7.05426335e-02, 2.03628346e-01, 4.53899771e-01, 2.56835938e-01,
          2.57740289e-01, 4.35131311e-01, 3.42453063e-01, 3.64563406e-01,
          3.64563406e-01, 2.45055035e-01, 3.64563406e-01, 3.64563406e-01,
          3.64563406e-01, 2.79069841e-01, 2.76802212e-01, 4.48532790e-01,
          4.48532790e-01, 6.00058921e-02, 1.52925447e-01, 4.48532790e-01,
          4.48532790e-01, 2.76958466e-01, 1.16904445e-01, 2.70986378e-01,
          3.21963340e-01, 3.05225551e-01, 4.47031781e-02, 3.38210873e-02,
          6.15009964e-01, 6.15009964e-01, 1.83948576e-01, 4.76948023e-02,
          3.61640379e-02, 1.44172519e-01, 5.07190645e-01, 5.07190645e-01,
          8.22320804e-02, 3.77642006e-01, 5.07190645e-01, 1.30444199e-01,
          1.43948451e-01, 1.23731166e-01, 3.80920500e-01, 1.02524988e-01,
          2.76216328e-01, 3.81091386e-01, 3.81091386e-01, 3.81091386e-01,
          3.81091386e-01, 3.80803794e-01, 1.95835292e-01, 3.73190492e-01,
          3.73190492e-01, 3.73190492e-01, 1.01590358e-01, 2.75749952e-01,
          3.73190492e-01, 3.73190492e-01, 3.73190492e-01, 2.72554308e-01,
          2.99920708e-01, 5.26868165e-01, 5.26868165e-01, 5.35367541e-02,
          1.03253290e-01, 7.45030493e-02, 1.39119327e-01, 1.83257788e-01,
          5.26868165e-01, 3.80920500e-01, 1.02524988e-01, 2.76216328e-01,
          3.81091386e-01, 3.81091386e-01, 3.81091386e-01, 3.81091386e-01,
          3.80803794e-01, 1.95835292e-01, 3.73190492e-01, 3.73190492e-01,
          3.73190492e-01, 1.01590358e-01, 2.75749952e-01, 3.73190492e-01,
          3.73190492e-01, 3.73190492e-01, 2.72554308e-01, 2.99920708e-01,
          5.26868165e-01, 5.26868165e-01, 5.35367541e-02, 1.03253290e-01,
          7.45030493e-02, 1.39119327e-01, 1.83257788e-01, 5.26868165e-01,
          3.19685191e-01, 3.97426307e-01, 3.97426307e-01, 3.69498610e-01,
          2.62999058e-01, 9.07216445e-02, 2.19345361e-01, 3.97426307e-01,
          3.97426307e-01, 1.99197561e-01, 4.18751240e-01, 4.18751240e-01,
          4.18751240e-01, 1.90122575e-01, 1.29365802e-01, 1.62763759e-01,
          4.18751240e-01, 4.18751240e-01, 4.16201353e-01, 4.41359133e-01,
          4.41359133e-01, 4.41359133e-01, 8.21107402e-02, 2.81759668e-02,
          3.77686359e-02, 1.84969351e-01, 4.41359133e-01, 3.72990608e-01,
          3.72990608e-01, 3.72990608e-01, 3.72990608e-01, 3.72990608e-01,
          1.52791768e-01, 1.77906364e-01, 3.52336347e-01, 3.48606795e-01,
          1.93514451e-01, 1.40292197e-01, 3.49397272e-01, 4.73299801e-01,
          3.02400738e-01, 1.66453704e-01, 1.57712862e-01, 4.73299801e-01,
          4.73299801e-01, 5.03463387e-01, 1.74493238e-01, 3.19224954e-01,
          5.03463387e-01, 2.58445352e-01, 1.18804753e-01, 1.09156584e-02,
          1.45483345e-01, 5.03463387e-01, 3.42453063e-01, 3.64563406e-01,
          3.64563406e-01, 2.45055035e-01, 3.64563406e-01, 3.64563406e-01,
          3.64563406e-01, 2.79069841e-01, 2.76802212e-01, 3.54174823e-01,
          3.19554687e-01, 2.29426175e-01, 2.98447818e-01, 3.54174823e-01,
          3.54174823e-01, 3.54174823e-01, 3.54174823e-01, 3.54174823e-01,
          2.04840034e-01, 1.79269284e-01, 4.07266438e-01, 4.07266438e-01,
          4.07266438e-01, 2.86074132e-01, 4.07266438e-01, 4.07266438e-01,
          1.03278145e-01, 1.44172519e-01, 5.07190645e-01, 5.07190645e-01,
          8.22320804e-02, 3.77642006e-01, 5.07190645e-01, 1.30444199e-01,
          1.43948451e-01, 1.23731166e-01, 1.55786753e-01, 4.67625886e-01,
          4.85903800e-01, 2.89139524e-02, 8.33808258e-02, 5.27651682e-02,
          4.85903800e-01, 4.85903800e-01, 1.82547212e-01, 1.13820836e-01,
          4.85082231e-02, 2.16554388e-01, 4.76017535e-01, 4.76017535e-01,
          1.11067869e-01, 4.76017535e-01, 4.76017535e-01, 1.19727813e-01,
          2.99920708e-01, 5.26868165e-01, 5.26868165e-01, 5.35367541e-02,
          1.03253290e-01, 7.45030493e-02, 1.39119327e-01, 1.83257788e-01,
          5.26868165e-01, 2.81232208e-01, 4.19537634e-01, 4.86817598e-01,
          5.79341361e-03, 3.48001509e-03, 1.59710925e-02, 4.86817598e-01,
          4.86817598e-01, 1.69586420e-01, 4.82021570e-01, 1.62312731e-01,
          1.63991168e-01, 1.03596628e-01, 1.40942521e-02, 4.04598154e-02,
          4.82021570e-01, 4.82021570e-01, 4.82021570e-01, 2.99920708e-01,
          5.26868165e-01, 5.26868165e-01, 5.35367541e-02, 1.03253290e-01,
          7.45030493e-02, 1.39119327e-01, 1.83257788e-01, 5.26868165e-01,
          2.81232208e-01, 4.19537634e-01, 4.86817598e-01, 5.79341361e-03,
          3.48001509e-03, 1.59710925e-02, 4.86817598e-01, 4.86817598e-01,
          1.69586420e-01, 4.82021570e-01, 1.62312731e-01, 1.63991168e-01,
          1.03596628e-01, 1.40942521e-02, 4.04598154e-02, 4.82021570e-01,
          4.82021570e-01, 4.82021570e-01, 4.16201353e-01, 4.41359133e-01,
          4.41359133e-01, 4.41359133e-01, 8.21107402e-02, 2.81759668e-02,
          3.77686359e-02, 1.84969351e-01, 4.41359133e-01, 4.05995667e-01,
          2.50959963e-01, 2.29161888e-01, 1.71352759e-01, 1.64084762e-01,
          4.05995667e-01, 4.05995667e-01, 4.05995667e-01, 4.05995667e-01,
          4.45572376e-01, 3.94783914e-01, 1.78420395e-02, 8.87381099e-03,
          3.88723426e-02, 4.45572376e-01, 4.45572376e-01, 4.45572376e-01,
          2.08920896e-01, 5.03463387e-01, 1.74493238e-01, 3.19224954e-01,
          5.03463387e-01, 2.58445352e-01, 1.18804753e-01, 1.09156584e-02,
          1.45483345e-01, 5.03463387e-01, 4.52498913e-01, 6.64406493e-02,
          5.19058816e-02, 3.80296975e-01, 3.30969185e-01, 4.52498913e-01,
          3.10220689e-01, 1.53956398e-01, 4.52498913e-01, 4.09800351e-01,
          4.09800351e-01, 4.09800351e-01, 5.26599176e-02, 1.90294072e-01,
          4.09800351e-01, 4.09800351e-01, 2.82487512e-01, 1.93495676e-01 ]
      - [ 4.74695206e-01, 4.74695206e-01, 1.37199715e-01, 3.59018631e-02,
          9.83110219e-02, 4.74695206e-01, 4.74695206e-01, 3.62497382e-02,
          2.50648767e-01, 4.71932381e-01, 4.71932381e-01, 6.78333715e-02,
          7.37628154e-03, 2.39316270e-01, 4.71932381e-01, 1.36079356e-01,
          2.91371495e-01, 4.02222306e-01, 1.58940554e-01, 1.29396096e-01,
          3.60111706e-02, 2.49728020e-02, 2.58610815e-01, 1.67828545e-01,
          2.46220410e-01, 6.30123913e-01, 6.30123913e-01, 1.04127385e-01,
          4.57166642e-01, 4.57166642e-01, 2.47536108e-01, 2.95233160e-01,
          4.57166642e-01, 4.57166642e-01, 1.21755125e-02, 9.21616971e-04,
          3.08312505e-01, 3.84227097e-01, 3.84227097e-01, 3.84227097e-01,
          3.84227097e-01, 3.84227097e-01, 3.84227097e-01, 1.18108667e-01,
          3.70451435e-02, 9.32462327e-03, 2.22123247e-02, 7.88766295e-02,
          4.60313946e-01, 4.60313946e-01, 3.42799544e-01, 4.60313946e-01,
          4.60313946e-01, 1.53404430e-01, 1.00961169e-02, 4.19188231e-01,
          4.19188231e-01, 2.42963806e-01, 4.00502175e-01, 4.19188231e-01,
          4.19188231e-01, 2.69577384e-01, 2.70206388e-02, 5.89390798e-03,
          5.24514437e-01, 5.24514437e-01, 1.14570938e-01, 1.58231139e-01,
          1.47821411e-01, 5.24514437e-01, 3.29046845e-01, 3.30761001e-02,
          2.16101289e-01, 6.22397885e-02, 1.14450663e-01, 4.45568860e-01,
          3.97547692e-01, 2.52599359e-01, 4.45568860e-01, 4.45568860e-01,
          3.38276833e-01, 1.00961169e-02, 4.19188231e-01, 4.19188231e-01,
          2.42963806e-01, 4.00502175e-01, 4.19188231e-01, 4.19188231e-01,
          2.69577384e-01, 2.70206388e-02, 5.89390798e-03, 5.24514437e-01,
          5.24514437e-01, 1.14570938e-01, 1.58231139e-01, 1.47821411e-01,
          5.24514437e-01, 3.29046845e-01, 3.30761001e-02, 2.16101289e-01,
          6.22397885e-02, 1.14450663e-01, 4.45568860e-01, 3.97547692e-01,
          2.52599359e-01, 4.45568860e-01, 4.45568860e-01, 3.38276833e-01,
          5.34822280e-03, 3.31651986e-01, 5.01097202e-01, 3.16206872e-01,
          2.50070207e-02, 2.72004288e-02, 5.01097202e-01, 5.01097202e-01,
          1.74144775e-01, 2.26038620e-02, 4.25444782e-01, 4.70418125e-01,
          4.70418125e-01, 4.70418125e-01, 3.93895805e-02, 2.17370301e-01,
          2.79745102e-01, 1.51157886e-01, 4.84096199e-01, 2.34416109e-02,
          2.76706126e-02, 1.05085194e-01, 4.84096199e-01, 7.28283674e-02,
          2.88664043e-01, 4.37182486e-01, 4.84096199e-01, 8.59905500e-03,
          2.63718404e-02, 1.31748065e-01, 1.29390374e-01, 3.36066373e-02,
          2.99772024e-02, 7.49869570e-02, 6.89419270e-01, 6.89419270e-01,
          6.56068251e-02, 5.38755693e-02, 3.54803622e-01, 4.55734938e-01,
          4.55734938e-01, 1.71420932e-01, 4.68311124e-02, 4.55734938e-01,
          4.55734938e-01, 2.61434913e-01, 1.01343207e-02, 9.67943370e-02,
          2.14367256e-01, 7.71450698e-01, 3.33645612e-01, 7.11525157e-02,
          6.29160255e-02, 3.91216695e-01, 1.58940554e-01, 1.29396096e-01,
          3.60111706e-02, 2.49728020e-02, 2.58610815e-01, 1.67828545e-01,
          2.46220410e-01, 6.30123913e-01, 6.30123913e-01, 1.11173287e-01,
          5.66152819e-02, 9.08249840e-02, 4.25092608e-01, 4.25092608e-01,
          2.61573941e-01, 4.25092608e-01, 4.25092608e-01, 4.25092608e-01,
          1.23527177e-01, 1.24676429e-01, 2.59286523e-01, 4.49251264e-01,
          4.49251264e-01, 1.76080972e-01, 2.43245810e-01, 4.49251264e-01,
          4.49251264e-01, 9.32462327e-03, 2.22123247e-02, 7.88766295e-02,
          4.60313946e-01, 4.60313946e-01, 3.42799544e-01, 4.60313946e-01,
          4.60313946e-01, 1.53404430e-01, 1.07814707e-01, 1.31010473e-01,
          3.18290263e-01, 1.95470557e-01, 1.34172693e-01, 3.21454108e-01,
          5.82370043e-01, 5.82370043e-01, 1.61971986e-01, 3.75276297e-01,
          3.75276297e-01, 3.02472442e-01, 3.75276297e-01, 2.63774544e-01,
          1.79385826e-01, 3.14393669e-01, 3.75276297e-01, 3.75276297e-01,
          2.16101289e-01, 6.22397885e-02, 1.14450663e-01, 4.45568860e-01,
          3.97547692e-01, 2.52599359e-01, 4.45568860e-01, 4.45568860e-01,
          3.38276833e-01, 4.75800008e-01, 7.46744871e-02, 1.60252392e-01,
          1.90127745e-01, 3.11067104e-01, 2.95911491e-01, 4.75800008e-01,
          2.53690302e-01, 4.75800008e-01, 6.03171229e-01, 8.41245204e-02,
          2.83641845e-01, 1.25270963e-01, 2.86817312e-01, 5.73486909e-02,
          1.24155179e-01, 2.49311924e-01, 6.03171229e-01, 2.16101289e-01,
          6.22397885e-02, 1.14450663e-01, 4.45568860e-01, 3.97547692e-01,
          2.52599359e-01, 4.45568860e-01, 4.45568860e-01, 3.38276833e-01,
          4.75800008e-01, 7.46744871e-02, 1.60252392e-01, 1.90127745e-01,
          3.11067104e-01, 2.95911491e-01, 4.75800008e-01, 2.53690302e-01,
          4.75800008e-01, 6.03171229e-01, 8.41245204e-02, 2.83641845e-01,
          1.25270963e-01, 2.86817312e-01, 5.73486909e-02, 1.24155179e-01,
          2.49311924e-01, 6.03171229e-01, 4.84096199e-01, 2.34416109e-02,
          2.76706126e-02, 1.05085194e-01, 4.84096199e-01, 7.28283674e-02,
          2.88664043e-01, 4.37182486e-01, 4.84096199e-01, 5.72929680e-01,
          2.11574277e-03, 3.04855057e-03, 9.23027620e-02, 5.72929680e-01,
          3.08613144e-02, 6.75252127e-03, 1.40980736e-03, 5.72929680e-01,
          4.69497204e-01, 3.03050987e-02, 1.62446257e-02, 4.62129340e-02,
          4.69497204e-01, 2.36177474e-01, 4.15890574e-01, 3.19319576e-01,
          4.69497204e-01, 2.61434913e-01, 1.01343207e-02, 9.67943370e-02,
          2.14367256e-01, 7.71450698e-01, 3.33645612e-01, 7.11525157e-02,
          6.29160255e-02, 3.91216695e-01, 5.55378377e-01, 2.07281798e-01,
          1.06112063e-02, 2.84996957e-01, 7.20734775e-01, 7.52829164e-02,
          3.09863370e-02, 1.26009053e-02, 1.83885410e-01, 5.00979304e-01,
          5.00979304e-01, 5.92955947e-02, 8.10018852e-02, 5.00979304e-01,
          4.04820502e-01, 2.43544072e-01, 2.87310202e-02, 8.92167464e-02 ]
      - [ 5.72947204e-01, 5.72947204e-01, 5.72947204e-01, 2.25881673e-03,
          5.61226741e-04, 0., 0., 7.72699900e-03, 9.69963521e-02,
          4.41097885e-01, 4.41097885e-01, 4.32582468e-01, 2.99246550e-01,
          2.00102538e-01, 2.65560746e-01, 4.41097885e-01, 5.70091978e-02,
          1.46295041e-01, 4.29681629e-01, 2.94819057e-01, 4.29681629e-01,
          4.29681629e-01, 2.88793981e-01, 1.67216420e-01, 2.38816217e-01,
          4.34488654e-02, 4.29681629e-01, 5.18897474e-01, 5.79122365e-01,
          5.79122365e-01, 4.16379385e-02, 1.13556534e-02, 2.10776832e-03,
          4.64661187e-03, 4.80493382e-02, 2.23606259e-01, 3.62505853e-01,
          3.95957410e-01, 3.95957410e-01, 1.82107389e-01, 8.93254429e-02,
          1.98948309e-01, 3.95957410e-01, 3.95957410e-01, 3.95957410e-01,
          1.59927502e-01, 3.03091913e-01, 4.78450596e-01, 4.78450596e-01,
          1.42517731e-01, 9.13832560e-02, 4.55836415e-01, 4.20260549e-01,
          8.29572752e-02, 4.31500329e-03, 5.75504482e-01, 5.75504482e-01,
          5.75504482e-01, 1.03839552e-02, 1.31286797e-03, 1.79767311e-02,
          8.77393037e-03, 1.04254996e-02, 4.32689078e-02, 1.46607712e-01,
          4.68877792e-01, 4.52090353e-01, 1.02023128e-02, 1.26785919e-01,
          4.68877792e-01, 4.68877792e-01, 3.03062826e-01, 3.57471168e-01,
          1.43751025e-01, 3.77631217e-01, 3.77631217e-01, 2.61361152e-01,
          2.57761627e-01, 3.77631217e-01, 3.77631217e-01, 3.77631217e-01,
          4.31500329e-03, 5.75504482e-01, 5.75504482e-01, 5.75504482e-01,
          1.03839552e-02, 1.31286797e-03, 1.79767311e-02, 8.77393037e-03,
          1.04254996e-02, 4.32689078e-02, 1.46607712e-01, 4.68877792e-01,
          4.52090353e-01, 1.02023128e-02, 1.26785919e-01, 4.68877792e-01,
          4.68877792e-01, 3.03062826e-01, 3.57471168e-01, 1.43751025e-01,
          3.77631217e-01, 3.77631217e-01, 2.61361152e-01, 2.57761627e-01,
          3.77631217e-01, 3.77631217e-01, 3.77631217e-01, 6.74681971e-03,
          3.84090282e-02, 7.04047799e-01, 7.04047799e-01, 5.09885000e-03,
          0., 1.72491092e-03, 7.54543522e-04, 7.41698593e-03,
          9.64491293e-02, 4.83933166e-02, 5.92027128e-01, 5.92027128e-01,
          3.78985882e-01, 4.91932780e-02, 8.89334679e-02, 2.72109240e-01,
          2.31190622e-01, 4.53561395e-01, 1.83712393e-02, 8.40718970e-02,
          4.50216860e-01, 4.53561395e-01, 1.07853159e-01, 7.44912848e-02,
          3.88630450e-01, 4.53561395e-01, 4.97177213e-01, 4.97177213e-01,
          4.97177213e-01, 4.97177213e-01, 6.65966282e-03, 0.,
          6.98797917e-03, 1.43951932e-02, 7.74160549e-02, 3.00025530e-02,
          1.68217659e-01, 5.55338562e-01, 5.55338562e-01, 5.55338562e-01,
          1.64252996e-01, 8.75108689e-02, 7.34898448e-02, 4.04501660e-03,
          7.26582855e-02, 1.29907832e-01, 1.34160683e-01, 6.61545753e-01,
          6.61545753e-01, 1.80251718e-01, 2.07910612e-01, 4.68821600e-02,
          6.32908847e-03, 4.29681629e-01, 2.94819057e-01, 4.29681629e-01,
          4.29681629e-01, 2.88793981e-01, 1.67216420e-01, 2.38816217e-01,
          4.34488654e-02, 4.29681629e-01, 6.67019606e-01, 4.52145897e-02,
          1.19143546e-01, 2.52458155e-02, 3.37899029e-02, 4.40459698e-02,
          4.18878086e-02, 2.86002398e-01, 6.67019606e-01, 2.86770165e-01,
          6.87370747e-02, 4.09414470e-01, 4.75722402e-01, 5.97722903e-02,
          5.83621301e-02, 1.30941689e-01, 4.94993746e-01, 4.94993746e-01,
          1.59927502e-01, 3.03091913e-01, 4.78450596e-01, 4.78450596e-01,
          1.42517731e-01, 9.13832560e-02, 4.55836415e-01, 4.20260549e-01,
          8.29572752e-02, 1.23699144e-01, 2.25327164e-01, 4.32133883e-01,
          4.32133883e-01, 4.32133883e-01, 2.46153921e-01, 2.96556741e-01,
          3.36346656e-01, 3.28212976e-01, 4.24684882e-02, 6.03995062e-02,
          2.32156560e-01, 2.61032820e-01, 2.60974079e-01, 1.04497090e-01,
          4.17856723e-01, 5.53783417e-01, 5.53783417e-01, 3.57471168e-01,
          1.43751025e-01, 3.77631217e-01, 3.77631217e-01, 2.61361152e-01,
          2.57761627e-01, 3.77631217e-01, 3.77631217e-01, 3.77631217e-01,
          4.26340342e-01, 2.25512628e-02, 3.65319073e-01, 4.26340342e-01,
          4.26340342e-01, 3.53592783e-01, 5.72126098e-02, 8.00569281e-02,
          4.26340342e-01, 1.44476891e-01, 2.03436896e-01, 3.01524967e-01,
          4.42580521e-01, 4.42580521e-01, 3.04744780e-01, 4.40737337e-01,
          3.14156324e-01, 2.54624605e-01, 3.57471168e-01, 1.43751025e-01,
          3.77631217e-01, 3.77631217e-01, 2.61361152e-01, 2.57761627e-01,
          3.77631217e-01, 3.77631217e-01, 3.77631217e-01, 4.26340342e-01,
          2.25512628e-02, 3.65319073e-01, 4.26340342e-01, 4.26340342e-01,
          3.53592783e-01, 5.72126098e-02, 8.00569281e-02, 4.26340342e-01,
          1.44476891e-01, 2.03436896e-01, 3.01524967e-01, 4.42580521e-01,
          4.42580521e-01, 3.04744780e-01, 4.40737337e-01, 3.14156324e-01,
          2.54624605e-01, 4.53561395e-01, 1.83712393e-02, 8.40718970e-02,
          4.50216860e-01, 4.53561395e-01, 1.07853159e-01, 7.44912848e-02,
          3.88630450e-01, 4.53561395e-01, 4.77035612e-01, 2.65853992e-03,
          4.94604185e-02, 1.57586932e-01, 4.77035612e-01, 4.77035612e-01,
          3.87467146e-02, 2.37055033e-01, 4.77035612e-01, 2.79291600e-01,
          2.13274732e-01, 1.61928833e-01, 7.03837499e-02, 4.10179853e-01,
          4.10179853e-01, 4.10179853e-01, 4.10179853e-01, 4.10179853e-01,
          7.26582855e-02, 1.29907832e-01, 1.34160683e-01, 6.61545753e-01,
          6.61545753e-01, 1.80251718e-01, 2.07910612e-01, 4.68821600e-02,
          6.32908847e-03, 9.05727036e-03, 1.12925041e-02, 4.21501435e-02,
          2.59810746e-01, 6.75870419e-01, 6.75870419e-01, 9.63416770e-02,
          2.85041165e-02, 8.31019040e-03, 3.95358121e-03, 3.53190885e-03,
          1.71409044e-02, 1.82453170e-02, 5.40524602e-01, 5.40524602e-01,
          5.40524602e-01, 3.30891341e-01, 8.92056674e-02 ]
      - [ 4.49399948e-01, 4.49399948e-01, 1.25845462e-01, 1.73482612e-01,
          4.49399948e-01, 4.49399948e-01, 2.07702279e-01, 2.72109937e-02,
          3.12819242e-01, 4.93160695e-01, 4.93160695e-01, 7.26896375e-02,
          5.74752390e-02, 4.93160695e-01, 4.93160695e-01, 1.07595854e-01,
          3.32316495e-02, 3.12460102e-02, 1.86789334e-01, 4.42635387e-01,
          4.42635387e-01, 1.00076661e-01, 4.42635387e-01, 4.42635387e-01,
          3.18160921e-01, 2.40244374e-01, 8.95818099e-02, 4.02268261e-01,
          3.60151887e-01, 5.75417541e-02, 2.04594553e-01, 4.02268261e-01,
          4.02268261e-01, 3.93342257e-01, 1.99446321e-01, 3.75693709e-01,
          3.88894916e-01, 2.52019107e-01, 8.85242075e-02, 6.16259985e-02,
          4.91675705e-01, 4.91675705e-01, 4.91675705e-01, 1.88729361e-01,
          8.85906518e-02, 2.29118139e-01, 5.37439942e-01, 5.37439942e-01,
          1.79601774e-01, 1.47734895e-01, 5.37439942e-01, 9.40584317e-02,
          1.31989289e-02, 1.11844391e-01, 2.90351421e-01, 5.83466850e-02,
          3.84672731e-01, 4.20713514e-01, 4.20713514e-01, 4.20713514e-01,
          4.20713514e-01, 1.87610641e-01, 1.30071566e-01, 1.61769837e-01,
          4.49780285e-01, 4.13407415e-01, 2.58479685e-01, 1.52434170e-01,
          3.12563688e-01, 4.49780285e-01, 4.49780285e-01, 6.14913367e-02,
          4.85737652e-01, 4.85737652e-01, 4.85737652e-01, 5.15795611e-02,
          7.67412931e-02, 7.48546869e-02, 8.03151131e-02, 1.75444543e-01,
          4.85737652e-01, 2.90351421e-01, 5.83466850e-02, 3.84672731e-01,
          4.20713514e-01, 4.20713514e-01, 4.20713514e-01, 4.20713514e-01,
          1.87610641e-01, 1.30071566e-01, 1.61769837e-01, 4.49780285e-01,
          4.13407415e-01, 2.58479685e-01, 1.52434170e-01, 3.12563688e-01,
          4.49780285e-01, 4.49780285e-01, 6.14913367e-02, 4.85737652e-01,
          4.85737652e-01, 4.85737652e-01, 5.15795611e-02, 7.67412931e-02,
          7.48546869e-02, 8.03151131e-02, 1.75444543e-01, 4.85737652e-01,
          3.72444481e-01, 3.72444481e-01, 3.72444481e-01, 2.80142784e-01,
          2.95211583e-01, 1.81823194e-01, 3.22513640e-01, 3.72444481e-01,
          3.72444481e-01, 9.46168974e-02, 3.89064461e-01, 4.55656350e-01,
          1.81636676e-01, 1.47563279e-01, 8.49924311e-02, 4.55656350e-01,
          4.55656350e-01, 3.87642354e-01, 3.03550124e-01, 4.69505876e-01,
          4.69505876e-01, 4.69505876e-01, 2.51932628e-02, 1.99964177e-02,
          2.52666939e-02, 1.40541062e-01, 4.69505876e-01, 3.85935098e-01,
          3.85935098e-01, 3.85935098e-01, 3.85935098e-01, 3.85935098e-01,
          3.29169363e-01, 2.75621325e-01, 2.16102809e-01, 1.42811015e-01,
          1.35331035e-01, 1.82004988e-01, 4.21814531e-01, 4.21814531e-01,
          4.21814531e-01, 1.61158457e-01, 1.69518590e-01, 4.21814531e-01,
          4.21814531e-01, 2.37562612e-01, 7.54340813e-02, 4.91982430e-01,
          4.91982430e-01, 9.14948285e-02, 5.77778695e-03, 1.73098445e-02,
          4.45101798e-01, 4.91982430e-01, 1.86789334e-01, 4.42635387e-01,
          4.42635387e-01, 1.00076661e-01, 4.42635387e-01, 4.42635387e-01,
          3.18160921e-01, 2.40244374e-01, 8.95818099e-02, 3.65722030e-01,
          3.65722030e-01, 3.65722030e-01, 1.27352238e-01, 3.65722030e-01,
          2.09426269e-01, 3.65722030e-01, 3.65722030e-01, 3.65722030e-01,
          1.49863571e-01, 1.19259335e-01, 2.32658431e-01, 4.46989596e-01,
          4.46989596e-01, 2.91239291e-01, 4.46989596e-01, 4.46989596e-01,
          1.43889859e-01, 2.29118139e-01, 5.37439942e-01, 5.37439942e-01,
          1.79601774e-01, 1.47734895e-01, 5.37439942e-01, 9.40584317e-02,
          1.31989289e-02, 1.11844391e-01, 3.92156504e-02, 4.97951657e-01,
          4.97951657e-01, 1.58088375e-02, 1.80822611e-02, 1.53362686e-02,
          4.97951657e-01, 4.97951657e-01, 2.92096660e-02, 4.09166962e-02,
          9.23456103e-02, 1.89298630e-01, 4.61514324e-01, 9.01282504e-02,
          4.23650034e-02, 5.97413123e-01, 5.97413123e-01, 1.06210865e-01,
          4.85737652e-01, 4.85737652e-01, 4.85737652e-01, 5.15795611e-02,
          7.67412931e-02, 7.48546869e-02, 8.03151131e-02, 1.75444543e-01,
          4.85737652e-01, 2.03905910e-01, 4.83889252e-01, 4.83889252e-01,
          1.42942241e-03, 6.87026558e-03, 1.16124097e-02, 4.83889252e-01,
          4.75659221e-01, 1.57185048e-01, 4.81202602e-01, 2.45738685e-01,
          8.87704045e-02, 1.90869253e-02, 2.54404685e-03, 1.82045121e-02,
          4.81202602e-01, 4.81202602e-01, 4.81202602e-01, 4.85737652e-01,
          4.85737652e-01, 4.85737652e-01, 5.15795611e-02, 7.67412931e-02,
          7.48546869e-02, 8.03151131e-02, 1.75444543e-01, 4.85737652e-01,
          2.03905910e-01, 4.83889252e-01, 4.83889252e-01, 1.42942241e-03,
          6.87026558e-03, 1.16124097e-02, 4.83889252e-01, 4.75659221e-01,
          1.57185048e-01, 4.81202602e-01, 2.45738685e-01, 8.87704045e-02,
          1.90869253e-02, 2.54404685e-03, 1.82045121e-02, 4.81202602e-01,
          4.81202602e-01, 4.81202602e-01, 3.03550124e-01, 4.69505876e-01,
          4.69505876e-01, 4.69505876e-01, 2.51932628e-02, 1.99964177e-02,
          2.52666939e-02, 1.40541062e-01, 4.69505876e-01, 3.61685038e-01,
          3.61685038e-01, 3.61685038e-01, 2.83731371e-01, 1.30573334e-02,
          3.61685038e-01, 3.61685038e-01, 3.61685038e-01, 3.61685038e-01,
          4.05623317e-01, 2.69256771e-01, 4.03714962e-02, 4.15588234e-04,
          2.88393791e-03, 4.85295385e-01, 4.85295385e-01, 4.85295385e-01,
          2.23495647e-01, 2.37562612e-01, 7.54340813e-02, 4.91982430e-01,
          4.91982430e-01, 9.14948285e-02, 5.77778695e-03, 1.73098445e-02,
          4.45101798e-01, 4.91982430e-01, 3.22625160e-01, 5.79505302e-02,
          1.88779742e-01, 4.99680609e-01, 3.10486525e-01, 4.99680609e-01,
          3.57558221e-01, 4.83423248e-02, 3.54934037e-01, 4.70933974e-01,
          4.70933974e-01, 2.45683268e-01, 1.30132549e-02, 5.96141331e-02,
          4.70933974e-01, 4.70933974e-01, 1.18100792e-01, 1.73636913e-01 ]
      - [ 4.49668229e-01, 3.11188549e-01, 2.43930399e-01, 1.68613166e-01,
          2.15742186e-01, 3.51308495e-01, 1.84853673e-01, 4.49668229e-01,
          4.49668229e-01, 4.05964285e-01, 1.26269981e-01, 1.22692339e-01,
          3.55737321e-02, 4.42045361e-01, 4.42045361e-01, 1.29992306e-01,
          4.42045361e-01, 4.42045361e-01, 4.79756743e-01, 2.39886157e-02,
          4.33287024e-02, 1.11173242e-01, 4.79756743e-01, 2.37310782e-01,
          5.84241487e-02, 4.79756743e-01, 4.79756743e-01, 7.37886652e-02,
          1.49111822e-01, 1.41097814e-01, 1.69513822e-01, 5.27719736e-01,
          5.27719736e-01, 5.27719736e-01, 2.30345696e-01, 1.72869027e-01,
          4.41154301e-01, 4.04133797e-01, 9.06249955e-02, 1.13800794e-01,
          4.41154301e-01, 4.41154301e-01, 1.33554041e-01, 1.21657811e-01,
          4.41154301e-01, 5.48374712e-01, 1.38603607e-02, 1.25312973e-02,
          1.68340579e-01, 5.48374712e-01, 2.50609457e-01, 3.02180159e-03,
          2.96199005e-02, 5.48374712e-01, 8.88617933e-02, 4.68586534e-01,
          4.68939394e-01, 1.71562303e-02, 2.36531943e-02, 4.68939394e-01,
          4.68939394e-01, 2.60429263e-01, 1.98636785e-01, 4.90029663e-01,
          4.90029663e-01, 4.90029663e-01, 3.84636526e-03, 8.16996992e-02,
          2.46443957e-01, 3.44087243e-01, 1.76160455e-01, 2.40552828e-01,
          4.36595976e-01, 4.44572307e-02, 1.84374955e-02, 2.24029779e-01,
          4.36595976e-01, 4.36595976e-01, 3.76055002e-01, 1.98120013e-01,
          4.36595976e-01, 8.88617933e-02, 4.68586534e-01, 4.68939394e-01,
          1.71562303e-02, 2.36531943e-02, 4.68939394e-01, 4.68939394e-01,
          2.60429263e-01, 1.98636785e-01, 4.90029663e-01, 4.90029663e-01,
          4.90029663e-01, 3.84636526e-03, 8.16996992e-02, 2.46443957e-01,
          3.44087243e-01, 1.76160455e-01, 2.40552828e-01, 4.36595976e-01,
          4.44572307e-02, 1.84374955e-02, 2.24029779e-01, 4.36595976e-01,
          4.36595976e-01, 3.76055002e-01, 1.98120013e-01, 4.36595976e-01,
          3.17595363e-01, 4.20862585e-01, 4.20862585e-01, 9.51652378e-02,
          7.14282272e-03, 1.39656216e-02, 4.20862585e-01, 4.20862585e-01,
          4.20862585e-01, 3.21177036e-01, 4.20275748e-01, 4.20275748e-01,
          8.17318782e-02, 3.49061303e-02, 3.98730189e-02, 4.20275748e-01,
          4.20275748e-01, 4.20275748e-01, 4.53942269e-01, 9.29034725e-02,
          5.30202910e-02, 8.09722319e-02, 3.33293319e-01, 2.05251917e-01,
          4.53942269e-01, 4.53942269e-01, 4.53942269e-01, 1.18013799e-01,
          2.13677019e-01, 4.31346953e-01, 4.31346953e-01, 6.44642711e-02,
          4.06134911e-02, 4.31346953e-01, 4.31346953e-01, 4.31346953e-01,
          2.44604751e-01, 1.72299221e-01, 4.11344677e-01, 4.11344677e-01,
          4.11344677e-01, 4.11344677e-01, 1.38992444e-01, 2.02561617e-01,
          4.11344677e-01, 3.40533108e-01, 2.79550422e-02, 8.13641958e-03,
          3.78316306e-02, 4.09140259e-01, 5.47515094e-01, 5.47515094e-01,
          2.66645044e-01, 1.95575997e-01, 4.79756743e-01, 2.39886157e-02,
          4.33287024e-02, 1.11173242e-01, 4.79756743e-01, 2.37310782e-01,
          5.84241487e-02, 4.79756743e-01, 4.79756743e-01, 4.85729456e-01,
          2.70912886e-01, 1.83307007e-01, 2.59806007e-01, 3.17753583e-01,
          8.40350762e-02, 6.94662705e-02, 4.85729456e-01, 4.85729456e-01,
          4.32648271e-01, 4.32648271e-01, 4.32648271e-01, 1.83313906e-01,
          1.10126093e-01, 4.73969616e-02, 1.08523399e-01, 4.32648271e-01,
          4.32648271e-01, 5.48374712e-01, 1.38603607e-02, 1.25312973e-02,
          1.68340579e-01, 5.48374712e-01, 2.50609457e-01, 3.02180159e-03,
          2.96199005e-02, 5.48374712e-01, 4.85562712e-01, 4.99711595e-02,
          1.08512297e-01, 4.85562712e-01, 4.85562712e-01, 1.46113381e-01,
          4.74069491e-02, 1.19151674e-01, 4.85562712e-01, 3.82957339e-01,
          3.82957339e-01, 3.82957339e-01, 3.82957339e-01, 3.82957339e-01,
          9.93658081e-02, 1.63320035e-01, 2.82292336e-01, 3.82957339e-01,
          4.36595976e-01, 4.44572307e-02, 1.84374955e-02, 2.24029779e-01,
          4.36595976e-01, 4.36595976e-01, 3.76055002e-01, 1.98120013e-01,
          4.36595976e-01, 5.24723768e-01, 4.54793544e-03, 1.54042698e-03,
          7.71833286e-02, 5.24723768e-01, 4.02635068e-01, 1.13731697e-02,
          2.30184719e-02, 5.24723768e-01, 5.09531438e-01, 2.53808443e-02,
          6.85628057e-02, 1.73580587e-01, 5.09531438e-01, 3.74486297e-01,
          1.85207203e-01, 7.76351839e-02, 5.09531438e-01, 4.36595976e-01,
          4.44572307e-02, 1.84374955e-02, 2.24029779e-01, 4.36595976e-01,
          4.36595976e-01, 3.76055002e-01, 1.98120013e-01, 4.36595976e-01,
          5.24723768e-01, 4.54793544e-03, 1.54042698e-03, 7.71833286e-02,
          5.24723768e-01, 4.02635068e-01, 1.13731697e-02, 2.30184719e-02,
          5.24723768e-01, 5.09531438e-01, 2.53808443e-02, 6.85628057e-02,
          1.73580587e-01, 5.09531438e-01, 3.74486297e-01, 1.85207203e-01,
          7.76351839e-02, 5.09531438e-01, 4.53942269e-01, 9.29034725e-02,
          5.30202910e-02, 8.09722319e-02, 3.33293319e-01, 2.05251917e-01,
          4.53942269e-01, 4.53942269e-01, 4.53942269e-01, 4.16071326e-01,
          1.47364989e-01, 1.77016973e-01, 9.08683836e-02, 4.16071326e-01,
          2.87060559e-01, 4.16071326e-01, 4.16071326e-01, 3.99587482e-01,
          4.43388075e-01, 3.38697702e-01, 1.19957142e-01, 1.52552262e-01,
          4.49801534e-01, 2.45380715e-01, 2.71453053e-01, 3.28625411e-01,
          4.49801534e-01, 3.40533108e-01, 2.79550422e-02, 8.13641958e-03,
          3.78316306e-02, 4.09140259e-01, 5.47515094e-01, 5.47515094e-01,
          2.66645044e-01, 1.95575997e-01, 4.17449296e-01, 1.26974985e-01,
          1.32263303e-01, 1.21188737e-01, 4.17449296e-01, 4.17449296e-01,
          4.17449296e-01, 3.03354561e-01, 3.98054302e-01, 4.56900328e-01,
          4.56900328e-01, 4.56900328e-01, 2.70062089e-01, 4.56725627e-01,
          1.74094170e-01, 1.08787663e-01, 4.45382893e-02, 2.08575070e-01 ]
      - [ 5.37828863e-01, 5.37828863e-01, 2.38137379e-01, 2.92256139e-02,
          1.75608471e-01, 5.37828863e-01, 1.95767477e-01, 4.28066961e-03,
          1.02063324e-02, 5.54728270e-01, 5.54728270e-01, 2.22244253e-03,
          5.99961029e-03, 1.26170963e-01, 5.54728270e-01, 8.68753269e-02,
          1.05726542e-02, 2.18336508e-01, 4.46112633e-01, 1.95823550e-01,
          3.21929187e-01, 1.29286036e-01, 3.98753107e-01, 4.46112633e-01,
          2.74697304e-01, 7.30184317e-02, 4.46112633e-01, 2.97189325e-01,
          5.77419698e-01, 5.77419698e-01, 2.55042147e-02, 4.21753936e-02,
          2.64471471e-01, 4.03865010e-01, 5.82994260e-02, 1.43394386e-02,
          3.84895533e-01, 3.20109487e-01, 2.13673666e-01, 5.97520135e-02,
          1.52214974e-01, 4.19544548e-01, 4.19544548e-01, 4.07905132e-01,
          3.92907381e-01, 3.57694000e-01, 3.57694000e-01, 3.57694000e-01,
          2.08473459e-01, 3.57694000e-01, 3.57694000e-01, 3.57694000e-01,
          2.39478841e-01, 3.57694000e-01, 3.23358588e-02, 6.15420818e-01,
          6.15420818e-01, 3.25213879e-01, 3.77373360e-02, 4.88437228e-02,
          3.13781679e-01, 1.58173382e-01, 4.76699769e-02, 4.09738123e-01,
          1.10800169e-01, 1.08089037e-01, 3.66789550e-02, 3.62180889e-01,
          4.09738123e-01, 4.09738123e-01, 4.09738123e-01, 4.09738123e-01,
          4.70806360e-01, 9.85883176e-02, 3.82585488e-02, 1.85322732e-01,
          4.70806360e-01, 4.70806360e-01, 6.82738200e-02, 2.41813228e-01,
          4.70806360e-01, 3.23358588e-02, 6.15420818e-01, 6.15420818e-01,
          3.25213879e-01, 3.77373360e-02, 4.88437228e-02, 3.13781679e-01,
          1.58173382e-01, 4.76699769e-02, 4.09738123e-01, 1.10800169e-01,
          1.08089037e-01, 3.66789550e-02, 3.62180889e-01, 4.09738123e-01,
          4.09738123e-01, 4.09738123e-01, 4.09738123e-01, 4.70806360e-01,
          9.85883176e-02, 3.82585488e-02, 1.85322732e-01, 4.70806360e-01,
          4.70806360e-01, 6.82738200e-02, 2.41813228e-01, 4.70806360e-01,
          4.40290570e-02, 5.94739020e-02, 6.18285835e-01, 6.18285835e-01,
          2.20612232e-02, 7.57275987e-03, 1.08787142e-01, 4.38156962e-01,
          1.39413014e-01, 1.30892500e-01, 4.11096871e-01, 3.33442718e-01,
          4.11096871e-01, 1.28175095e-01, 4.11096871e-01, 4.11096871e-01,
          4.11096871e-01, 7.83853978e-02, 3.77234638e-01, 3.77234638e-01,
          2.64068246e-01, 3.77234638e-01, 3.77234638e-01, 3.77234638e-01,
          2.30889067e-01, 1.39117301e-01, 3.77234638e-01, 1.20469719e-01,
          6.15459904e-02, 4.69511807e-01, 4.69511807e-01, 8.15344304e-02,
          4.23606634e-02, 2.94621736e-01, 4.69511807e-01, 4.69511807e-01,
          3.25623900e-02, 5.45763820e-02, 1.83721974e-01, 4.74373102e-01,
          4.74373102e-01, 8.21077079e-03, 2.81944722e-01, 4.74373102e-01,
          4.50354844e-01, 3.65431309e-01, 7.39527941e-02, 1.26526430e-01,
          4.54858392e-01, 4.54858392e-01, 1.06329590e-01, 3.93448994e-02,
          4.54858392e-01, 4.54858392e-01, 4.46112633e-01, 1.95823550e-01,
          3.21929187e-01, 1.29286036e-01, 3.98753107e-01, 4.46112633e-01,
          2.74697304e-01, 7.30184317e-02, 4.46112633e-01, 1.63285628e-01,
          1.50930852e-01, 4.56918627e-01, 4.53119218e-01, 2.86681414e-01,
          1.62021607e-01, 7.69135728e-02, 4.56918627e-01, 4.56918627e-01,
          3.23450603e-02, 7.72020407e-03, 2.25350708e-01, 5.58286428e-01,
          8.57560188e-02, 6.38982281e-03, 9.49131604e-03, 5.58286428e-01,
          5.58286428e-01, 3.57694000e-01, 3.57694000e-01, 3.57694000e-01,
          2.08473459e-01, 3.57694000e-01, 3.57694000e-01, 3.57694000e-01,
          2.39478841e-01, 3.57694000e-01, 2.77197897e-01, 4.16878432e-01,
          4.16878432e-01, 4.16878432e-01, 2.87959039e-01, 1.78837955e-01,
          3.05182666e-01, 2.63138354e-01, 3.46918464e-01, 5.33830337e-02,
          1.23172306e-01, 2.67024994e-01, 3.64052892e-01, 6.59946650e-02,
          2.46093813e-02, 2.23133966e-01, 5.98920703e-01, 5.98920703e-01,
          4.70806360e-01, 9.85883176e-02, 3.82585488e-02, 1.85322732e-01,
          4.70806360e-01, 4.70806360e-01, 6.82738200e-02, 2.41813228e-01,
          4.70806360e-01, 4.15743440e-01, 4.15743440e-01, 2.44846076e-01,
          4.15743440e-01, 4.15743440e-01, 8.23298544e-02, 2.11976860e-02,
          2.53883153e-01, 4.15743440e-01, 1.80988878e-01, 2.70563632e-01,
          4.07835513e-01, 4.30550754e-01, 1.08182445e-01, 4.93412316e-02,
          5.09492338e-01, 5.09492338e-01, 6.27960190e-02, 4.70806360e-01,
          9.85883176e-02, 3.82585488e-02, 1.85322732e-01, 4.70806360e-01,
          4.70806360e-01, 6.82738200e-02, 2.41813228e-01, 4.70806360e-01,
          4.15743440e-01, 4.15743440e-01, 2.44846076e-01, 4.15743440e-01,
          4.15743440e-01, 8.23298544e-02, 2.11976860e-02, 2.53883153e-01,
          4.15743440e-01, 1.80988878e-01, 2.70563632e-01, 4.07835513e-01,
          4.30550754e-01, 1.08182445e-01, 4.93412316e-02, 5.09492338e-01,
          5.09492338e-01, 6.27960190e-02, 3.77234638e-01, 3.77234638e-01,
          2.64068246e-01, 3.77234638e-01, 3.77234638e-01, 3.77234638e-01,
          2.30889067e-01, 1.39117301e-01, 3.77234638e-01, 2.24186063e-01,
          1.93106145e-01, 3.68392617e-01, 3.68392617e-01, 3.68392617e-01,
          3.07394713e-01, 3.68392617e-01, 3.68392617e-01, 3.68392617e-01,
          5.86737953e-02, 4.14722174e-01, 4.40151513e-01, 4.40151513e-01,
          3.48645970e-02, 4.40151513e-01, 4.40151513e-01, 2.06894889e-01,
          3.48125137e-02, 3.65431309e-01, 7.39527941e-02, 1.26526430e-01,
          4.54858392e-01, 4.54858392e-01, 1.06329590e-01, 3.93448994e-02,
          4.54858392e-01, 4.54858392e-01, 4.46811676e-01, 4.46811676e-01,
          1.67522132e-01, 6.00988902e-02, 4.46811676e-01, 4.46811676e-01,
          3.31483960e-01, 1.00467794e-01, 2.12892368e-01, 4.37984705e-01,
          4.79456097e-01, 3.29766631e-01, 1.99505500e-02, 2.34517679e-01,
          4.79456097e-01, 4.22722429e-01, 1.95105448e-02, 2.01695133e-02 ]
      - [ 4.51852053e-01, 4.51852053e-01, 4.51852053e-01, 1.92310870e-01,
          1.51566997e-01, 4.51852053e-01, 3.38793486e-01, 2.07834095e-02,
          6.03025854e-02, 3.72722417e-01, 3.72722417e-01, 3.72722417e-01,
          2.65783042e-01, 6.19566999e-02, 3.72722417e-01, 3.72722417e-01,
          3.72722417e-01, 2.97094256e-01, 3.63401622e-01, 3.63401622e-01,
          3.40963036e-01, 2.06177071e-01, 2.12697044e-01, 3.63401622e-01,
          3.63401622e-01, 3.63401622e-01, 3.63401622e-01, 2.12319478e-01,
          3.92260134e-01, 3.92260134e-01, 3.92260134e-01, 7.76546672e-02,
          3.92260134e-01, 3.92260134e-01, 3.92260134e-01, 1.47524148e-01,
          3.95109028e-01, 3.29883516e-01, 3.95109028e-01, 3.95109028e-01,
          3.95109028e-01, 1.40830815e-01, 1.79123312e-01, 3.49268526e-01,
          2.98124343e-01, 3.87517869e-01, 3.87517869e-01, 7.72371441e-02,
          3.87517869e-01, 3.87517869e-01, 2.94808656e-01, 4.72264700e-02,
          3.87517869e-01, 3.87517869e-01, 1.50522679e-01, 4.07871038e-01,
          4.66962963e-01, 2.38361388e-01, 2.30555817e-01, 3.70436497e-02,
          2.02020571e-01, 4.66962963e-01, 4.66962963e-01, 3.95186633e-01,
          3.95186633e-01, 3.95186633e-01, 2.84243017e-01, 2.80948311e-01,
          3.46836776e-01, 3.95186633e-01, 2.53106743e-01, 1.65158674e-01,
          4.56554323e-01, 5.04582673e-02, 1.09505067e-02, 3.49627942e-01,
          4.56554323e-01, 4.56554323e-01, 1.35701612e-01, 1.35468334e-01,
          4.56554323e-01, 1.50522679e-01, 4.07871038e-01, 4.66962963e-01,
          2.38361388e-01, 2.30555817e-01, 3.70436497e-02, 2.02020571e-01,
          4.66962963e-01, 4.66962963e-01, 3.95186633e-01, 3.95186633e-01,
          3.95186633e-01, 2.84243017e-01, 2.80948311e-01, 3.46836776e-01,
          3.95186633e-01, 2.53106743e-01, 1.65158674e-01, 4.56554323e-01,
          5.04582673e-02, 1.09505067e-02, 3.49627942e-01, 4.56554323e-01,
          4.56554323e-01, 1.35701612e-01, 1.35468334e-01, 4.56554323e-01,
          4.19911236e-01, 8.90549123e-02, 3.04523259e-01, 4.19911236e-01,
          4.19911236e-01, 1.04150191e-01, 5.16283475e-02, 4.19911236e-01,
          4.19911236e-01, 3.70201498e-01, 2.24589616e-01, 4.21789318e-01,
          4.21789318e-01, 2.11856931e-01, 6.56783879e-02, 2.17887253e-01,
          4.21789318e-01, 4.21789318e-01, 4.64908570e-01, 2.08163019e-02,
          1.76897459e-02, 4.64908570e-01, 4.64908570e-01, 1.74221769e-01,
          7.07366168e-02, 3.07722867e-01, 4.64908570e-01, 6.34516835e-01,
          1.96386531e-01, 1.32450432e-01, 1.48259610e-01, 2.29480818e-01,
          1.49396062e-02, 5.31890709e-03, 2.39660546e-01, 6.34516835e-01,
          6.22630477e-01, 1.89298317e-01, 7.11473301e-02, 2.25367412e-01,
          4.87625152e-02, 1.11978101e-02, 8.89818594e-02, 3.41084749e-01,
          6.22630477e-01, 3.88055503e-01, 3.04708421e-01, 3.00827861e-01,
          2.38318741e-01, 3.88055503e-01, 5.52053712e-02, 3.88055503e-01,
          3.88055503e-01, 3.88055503e-01, 3.63401622e-01, 3.63401622e-01,
          3.40963036e-01, 2.06177071e-01, 2.12697044e-01, 3.63401622e-01,
          3.63401622e-01, 3.63401622e-01, 3.63401622e-01, 4.00964886e-01,
          4.00964886e-01, 4.00964886e-01, 4.00964886e-01, 5.23934998e-02,
          9.50253904e-02, 1.39936835e-01, 4.00964886e-01, 4.00964886e-01,
          3.53272766e-01, 8.40735063e-02, 2.81048417e-01, 4.24807698e-01,
          1.97111472e-01, 1.55560523e-01, 4.24807698e-01, 4.24807698e-01,
          4.24807698e-01, 3.87517869e-01, 3.87517869e-01, 7.72371441e-02,
          3.87517869e-01, 3.87517869e-01, 2.94808656e-01, 4.72264700e-02,
          3.87517869e-01, 3.87517869e-01, 3.71023625e-01, 3.20031196e-01,
          2.33656138e-01, 3.51305664e-01, 3.71023625e-01, 3.71023625e-01,
          1.66041762e-01, 3.71023625e-01, 3.71023625e-01, 8.23218301e-02,
          1.13666765e-01, 2.03569651e-01, 1.77078754e-01, 2.28549317e-01,
          4.87410367e-01, 4.87410367e-01, 4.87410367e-01, 3.71073842e-01,
          4.56554323e-01, 5.04582673e-02, 1.09505067e-02, 3.49627942e-01,
          4.56554323e-01, 4.56554323e-01, 1.35701612e-01, 1.35468334e-01,
          4.56554323e-01, 4.08253044e-01, 1.60117507e-01, 3.27338547e-01,
          4.09727156e-01, 4.09727156e-01, 1.55724362e-01, 2.63233390e-02,
          4.09727156e-01, 4.09727156e-01, 1.00677483e-01, 1.48699537e-01,
          2.22051680e-01, 1.22711271e-01, 7.99832642e-02, 1.70601845e-01,
          5.36199749e-01, 5.36199749e-01, 5.36199749e-01, 4.56554323e-01,
          5.04582673e-02, 1.09505067e-02, 3.49627942e-01, 4.56554323e-01,
          4.56554323e-01, 1.35701612e-01, 1.35468334e-01, 4.56554323e-01,
          4.08253044e-01, 1.60117507e-01, 3.27338547e-01, 4.09727156e-01,
          4.09727156e-01, 1.55724362e-01, 2.63233390e-02, 4.09727156e-01,
          4.09727156e-01, 1.00677483e-01, 1.48699537e-01, 2.22051680e-01,
          1.22711271e-01, 7.99832642e-02, 1.70601845e-01, 5.36199749e-01,
          5.36199749e-01, 5.36199749e-01, 4.64908570e-01, 2.08163019e-02,
          1.76897459e-02, 4.64908570e-01, 4.64908570e-01, 1.74221769e-01,
          7.07366168e-02, 3.07722867e-01, 4.64908570e-01, 4.13467556e-01,
          4.13467556e-01, 2.40629941e-01, 2.61610657e-01, 4.13467556e-01,
          4.13467556e-01, 1.04297407e-01, 6.22228049e-02, 4.13467556e-01,
          4.28038448e-01, 4.28038448e-01, 1.93207026e-01, 7.16820732e-02,
          1.21348411e-01, 4.28038448e-01, 4.28038448e-01, 4.28038448e-01,
          1.49822891e-01, 3.88055503e-01, 3.04708421e-01, 3.00827861e-01,
          2.38318741e-01, 3.88055503e-01, 5.52053712e-02, 3.88055503e-01,
          3.88055503e-01, 3.88055503e-01, 4.60179955e-01, 1.70496419e-01,
          1.04103178e-01, 1.19495608e-01, 4.60179955e-01, 2.68894434e-01,
          1.47821411e-01, 4.60179955e-01, 4.60179955e-01, 2.06372097e-01,
          1.42544717e-01, 3.14440548e-01, 2.00916439e-01, 1.43919423e-01,
          2.11976528e-01, 4.68173653e-01, 5.03976405e-01, 5.03976405e-01 ]
      - [ 4.72065836e-01, 4.72065836e-01, 2.31720060e-01, 3.59638669e-02,
          8.35933313e-02, 4.72065836e-01, 4.72065836e-01, 6.64415881e-02,
          1.93676025e-01, 4.59168881e-01, 4.59168881e-01, 3.57318342e-01,
          1.06197055e-02, 1.54661804e-01, 4.59168881e-01, 4.10961926e-01,
          1.77703962e-01, 1.03573859e-01, 3.75841260e-01, 3.75841260e-01,
          2.23785758e-01, 7.85609409e-02, 3.04061323e-01, 3.75841260e-01,
          3.75841260e-01, 3.75841260e-01, 3.75841260e-01, 2.78129071e-01,
          4.61902946e-01, 4.64343518e-01, 1.72723860e-01, 4.90600988e-02,
          4.64343518e-01, 4.64343518e-01, 1.45470709e-01, 6.63706958e-02,
          1.72721907e-01, 3.91305536e-01, 3.91305536e-01, 3.91305536e-01,
          1.43336639e-01, 3.22062075e-01, 3.91305536e-01, 3.91305536e-01,
          2.76384592e-01, 3.72737527e-01, 3.72737527e-01, 2.11621091e-01,
          6.86210617e-02, 3.72737527e-01, 3.72737527e-01, 3.72737527e-01,
          3.72737527e-01, 3.36428404e-01, 1.60479546e-01, 1.79468125e-01,
          4.52444851e-01, 3.13730031e-01, 1.12058558e-01, 4.52444851e-01,
          4.52444851e-01, 4.52444851e-01, 8.78019184e-02, 2.81032413e-01,
          1.64698794e-01, 3.81809384e-01, 4.57211107e-01, 4.57211107e-01,
          4.57211107e-01, 2.22829252e-01, 1.65254593e-01, 1.98650181e-01,
          4.62003440e-01, 4.62003440e-01, 7.60086626e-02, 1.64143130e-01,
          4.62003440e-01, 4.62003440e-01, 2.46871710e-01, 5.84920682e-02,
          2.10972622e-01, 1.60479546e-01, 1.79468125e-01, 4.52444851e-01,
          3.13730031e-01, 1.12058558e-01, 4.52444851e-01, 4.52444851e-01,
          4.52444851e-01, 8.78019184e-02, 2.81032413e-01, 1.64698794e-01,
          3.81809384e-01, 4.57211107e-01, 4.57211107e-01, 4.57211107e-01,
          2.22829252e-01, 1.65254593e-01, 1.98650181e-01, 4.62003440e-01,
          4.62003440e-01, 7.60086626e-02, 1.64143130e-01, 4.62003440e-01,
          4.62003440e-01, 2.46871710e-01, 5.84920682e-02, 2.10972622e-01,
          5.28608337e-02, 2.08165258e-01, 2.65026808e-01, 3.16646397e-01,
          3.44343305e-01, 4.46767420e-01, 4.46767420e-01, 4.46767420e-01,
          2.48053178e-01, 4.61658925e-01, 4.61658925e-01, 2.18432784e-01,
          7.73892626e-02, 2.84000367e-01, 4.61658925e-01, 3.80629390e-01,
          1.46950424e-01, 2.34884247e-01, 4.15286064e-01, 4.15286064e-01,
          4.09390152e-01, 4.09163237e-01, 4.15286064e-01, 2.68058568e-01,
          1.37664542e-01, 7.15677738e-02, 2.17991307e-01, 8.49123374e-02,
          3.59618425e-01, 3.78951281e-01, 4.17641491e-01, 2.04680517e-01,
          2.37549275e-01, 3.06743264e-01, 4.17641491e-01, 4.17641491e-01,
          3.99029821e-01, 3.99029821e-01, 3.99029821e-01, 3.99029821e-01,
          1.56352580e-01, 1.22286282e-01, 3.55647281e-02, 3.99029821e-01,
          3.99029821e-01, 5.04790068e-01, 8.75363201e-02, 4.13893946e-02,
          3.73058021e-01, 5.04790068e-01, 6.88037723e-02, 1.15829716e-02,
          2.77674884e-01, 5.04790068e-01, 3.75841260e-01, 3.75841260e-01,
          2.23785758e-01, 7.85609409e-02, 3.04061323e-01, 3.75841260e-01,
          3.75841260e-01, 3.75841260e-01, 3.75841260e-01, 3.30461949e-01,
          3.71822596e-01, 3.71822596e-01, 3.71822596e-01, 2.04467744e-01,
          2.62605846e-01, 2.91635066e-01, 3.71822596e-01, 3.71822596e-01,
          1.43363297e-01, 1.52089059e-01, 3.66893083e-01, 3.81485462e-01,
          3.81485462e-01, 3.81485462e-01, 3.81485462e-01, 3.81485462e-01,
          3.00396681e-01, 3.72737527e-01, 3.72737527e-01, 2.11621091e-01,
          6.86210617e-02, 3.72737527e-01, 3.72737527e-01, 3.72737527e-01,
          3.72737527e-01, 3.36428404e-01, 3.74102384e-01, 3.74102384e-01,
          1.78398103e-01, 3.74102384e-01, 3.45775783e-01, 3.74102384e-01,
          3.74102384e-01, 3.74102384e-01, 7.18343854e-02, 4.03772444e-01,
          4.03772444e-01, 2.98487246e-01, 3.57959718e-01, 2.81973630e-01,
          4.03772444e-01, 4.03772444e-01, 1.85720891e-01, 1.12278238e-01,
          4.62003440e-01, 4.62003440e-01, 7.60086626e-02, 1.64143130e-01,
          4.62003440e-01, 4.62003440e-01, 2.46871710e-01, 5.84920682e-02,
          2.10972622e-01, 4.20649827e-01, 4.20649827e-01, 1.17841780e-01,
          9.05540586e-02, 3.79580826e-01, 4.20649827e-01, 2.63650447e-01,
          2.28764191e-01, 4.20649827e-01, 3.96823943e-01, 3.96823943e-01,
          9.99510661e-02, 7.81184733e-02, 1.87423617e-01, 3.96823943e-01,
          3.96823943e-01, 3.96823943e-01, 3.96823943e-01, 4.62003440e-01,
          4.62003440e-01, 7.60086626e-02, 1.64143130e-01, 4.62003440e-01,
          4.62003440e-01, 2.46871710e-01, 5.84920682e-02, 2.10972622e-01,
          4.20649827e-01, 4.20649827e-01, 1.17841780e-01, 9.05540586e-02,
          3.79580826e-01, 4.20649827e-01, 2.63650447e-01, 2.28764191e-01,
          4.20649827e-01, 3.96823943e-01, 3.96823943e-01, 9.99510661e-02,
          7.81184733e-02, 1.87423617e-01, 3.96823943e-01, 3.96823943e-01,
          3.96823943e-01, 3.96823943e-01, 4.15286064e-01, 4.15286064e-01,
          4.09390152e-01, 4.09163237e-01, 4.15286064e-01, 2.68058568e-01,
          1.37664542e-01, 7.15677738e-02, 2.17991307e-01, 2.69301534e-01,
          3.31006289e-01, 3.99289459e-01, 3.99289459e-01, 3.99289459e-01,
          2.55940892e-02, 1.26913711e-01, 3.99289459e-01, 3.99289459e-01,
          6.56820983e-02, 3.00689667e-01, 2.65398592e-01, 1.77770272e-01,
          2.57607475e-02, 5.79556786e-02, 5.61782539e-01, 5.61782539e-01,
          4.02990550e-01, 5.04790068e-01, 8.75363201e-02, 4.13893946e-02,
          3.73058021e-01, 5.04790068e-01, 6.88037723e-02, 1.15829716e-02,
          2.77674884e-01, 5.04790068e-01, 4.24987167e-01, 4.24987167e-01,
          3.25744301e-01, 1.83245316e-01, 3.53597760e-01, 4.24987167e-01,
          3.56098980e-01, 1.32641941e-01, 2.11642370e-01, 4.53805059e-01,
          4.53805059e-01, 1.93149656e-01, 4.90545519e-02, 4.48137484e-02,
          4.53805059e-01, 4.53805059e-01, 3.56632441e-01, 5.29412292e-02 ]
   decision_functions:
      -
         sv_count: 2
         rho: 0.
         alpha: [ 1.0041642623276379e+00, -1.0041642623276379e+00 ]
         index: [ 10, 9 ]
      -
         sv_count: 2
         rho: 0.
         alpha: [ 1.0000538258913028e+00, -1.0000538258913028e+00 ]
         index: [ 10, 5 ]
      -
         sv_count: 2
         rho: 0.
         alpha: [ 1.0001452776218394e+00, -1.0001452776218394e+00 ]
         index: [ 10, 0 ]
      -
         sv_count: 2
         rho: 0.
         alpha: [ 1.0004533199154138e+00, -1.0004533199154138e+00 ]
         index: [ 10, 7 ]
      -
         sv_count: 2
         rho: 0.
         alpha: [ 1.0019367821085789e+00, -1.0019367821085789e+00 ]
         index: [ 10, 3 ]
      -
         sv_count: 2
         rho: 0.
         alpha: [ 1.0000239616413462e+00, -1.0000239616413462e+00 ]
         index: [ 10, 1 ]
      -
         sv_count: 2
         rho: 0.
         alpha: [ 1.0006447416339554e+00, -1.0006447416339554e+00 ]
         index: [ 10, 4 ]
      -
         sv_count: 2
         rho: 0.
         alpha: [ 1.0050057351141619e+00, -1.0050057351141619e+00 ]
         index: [ 10, 8 ]
      -
         sv_count: 2
         rho: 0.
         alpha: [ 1.0660309915752422e+00, -1.0660309915752422e+00 ]
         index: [ 10, 2 ]
      -
         sv_count: 2
         rho: 0.
         alpha: [ 1.0009446117900891e+00, -1.0009446117900891e+00 ]
         index: [ 10, 6 ]
      -
         sv_count: 2
         rho: 0.
         alpha: [ 1.0003325852847527e+00, -1.0003325852847527e+00 ]
         index: [ 9, 5 ]
      -
         sv_count: 2
         rho: 0.
         alpha: [ 1.0000120402832113e+00, -1.0000120402832113e+00 ]
         index: [ 9, 0 ]
      -
         sv_count: 2
         rho: 0.
         alpha: [ 1.0007764761084021e+00, -1.0007764761084021e+00 ]
         index: [ 9, 7 ]
      -
         sv_count: 2
         rho: 0.
         alpha: [ 1.0007281236771182e+00, -1.0007281236771182e+00 ]
         index: [ 9, 3 ]
      -
         sv_count: 2
         rho: 0.
         alpha: [ 1.0002527875792584e+00, -1.0002527875792584e+00 ]
         index: [ 9, 1 ]
      -
         sv_count: 2
         rho: 0.
         alpha: [ 1.0004218807701140e+00, -1.0004218807701140e+00 ]
         index: [ 9, 4 ]
      -
         sv_count: 2
         rho: 0.
         alpha: [ 1.0034808860495941e+00, -1.0034808860495941e+00 ]
         index: [ 9, 8 ]
      -
         sv_count: 2
         rho: 0.
         alpha: [ 1.0117493359217831e+00, -1.0117493359217831e+00 ]
         index: [ 9, 2 ]
      -
         sv_count: 2
         rho: 0.
         alpha: [ 1.0001650725058180e+00, -1.0001650725058180e+00 ]
         index: [ 9, 6 ]
      -
         sv_count: 2
         rho: 0.
         alpha: [ 1.0000037551067216e+00, -1.0000037551067216e+00 ]
         index: [ 5, 0 ]
      -
         sv_count: 2
         rho: 0.
         alpha: [ 1.0000165107592034e+00, -1.0000165107592034e+00 ]
         index: [ 5, 7 ]
      -
         sv_count: 2
         rho: 0.
         alpha: [ 1.0000281341838440e+00, -1.0000281341838440e+00 ]
         index: [ 5, 3 ]
      -
         sv_count: 2
         rho: 0.
         alpha: [ 1.0288782544287436e+00, -1.0288782544287436e+00 ]
         index: [ 5, 1 ]
      -
         sv_count: 2
         rho: 0.
         alpha: [ 1.0001531477830801e+00, -1.0001531477830801e+00 ]
         index: [ 5, 4 ]
      -
         sv_count: 2
         rho: 0.
         alpha: [ 1.0007004275990306e+00, -1.0007004275990306e+00 ]
         index: [ 5, 8 ]
      -
         sv_count: 2
         rho: 0.
         alpha: [ 1.0001809924538785e+00, -1.0001809924538785e+00 ]
         index: [ 5, 2 ]
      -
         sv_count: 2
         rho: 0.
         alpha: [ 1.0000107289511688e+00, -1.0000107289511688e+00 ]
         index: [ 5, 6 ]
      -
         sv_count: 2
         rho: 0.
         alpha: [ 1.0000187162087495e+00, -1.0000187162087495e+00 ]
         index: [ 0, 7 ]
      -
         sv_count: 2
         rho: 0.
         alpha: [ 1.0000593101390354e+00, -1.0000593101390354e+00 ]
         index: [ 0, 3 ]
      -
         sv_count: 2
         rho: 0.
         alpha: [ 1.0000062585268703e+00, -1.0000062585268703e+00 ]
         index: [ 0, 1 ]
      -
         sv_count: 2
         rho: 0.
         alpha: [ 1.0000214581325606e+00, -1.0000214581325606e+00 ]
         index: [ 0, 4 ]
      -
         sv_count: 2
         rho: 0.
         alpha: [ 1.0000283130078720e+00, -1.0000283130078720e+00 ]
         index: [ 0, 8 ]
      -
         sv_count: 2
         rho: 0.
         alpha: [ 1.0000299224270022e+00, -1.0000299224270022e+00 ]
         index: [ 0, 2 ]
      -
         sv_count: 2
         rho: 0.
         alpha: [ 1.0000305781177625e+00, -1.0000305781177625e+00 ]
         index: [ 0, 6 ]
      -
         sv_count: 2
         rho: 0.
         alpha: [ 1.0000300416434400e+00, -1.0000300416434400e+00 ]
         index: [ 7, 3 ]
      -
         sv_count: 2
         rho: 0.
         alpha: [ 1.0000109077689721e+00, -1.0000109077689721e+00 ]
         index: [ 7, 1 ]
      -
         sv_count: 2
         rho: 0.
         alpha: [ 1.0012528479717655e+00, -1.0012528479717655e+00 ]
         index: [ 7, 4 ]
      -
         sv_count: 2
         rho: 0.
         alpha: [ 1.0002462277961253e+00, -1.0002462277961253e+00 ]
         index: [ 7, 8 ]
      -
         sv_count: 2
         rho: 0.
         alpha: [ 1.0013234822881065e+00, -1.0013234822881065e+00 ]
         index: [ 7, 2 ]
      -
         sv_count: 2
         rho: 0.
         alpha: [ 1.0000049472099912e+00, -1.0000049472099912e+00 ]
         index: [ 7, 6 ]
      -
         sv_count: 2
         rho: 0.
         alpha: [ 1.0000480436517705e+00, -1.0000480436517705e+00 ]
         index: [ 3, 1 ]
      -
         sv_count: 2
         rho: 0.
         alpha: [ 1.0001257816195022e+00, -1.0001257816195022e+00 ]
         index: [ 3, 4 ]
      -
         sv_count: 2
         rho: 0.
         alpha: [ 1.0004664450009344e+00, -1.0004664450009344e+00 ]
         index: [ 3, 8 ]
      -
         sv_count: 2
         rho: 0.
         alpha: [ 1.0002381176377442e+00, -1.0002381176377442e+00 ]
         index: [ 3, 2 ]
      -
         sv_count: 2
         rho: 0.
         alpha: [ 1.2348023270833479e+00, -1.2348023270833479e+00 ]
         index: [ 3, 6 ]
      -
         sv_count: 2
         rho: 0.
         alpha: [ 1.0000660463082378e+00, -1.0000660463082378e+00 ]
         index: [ 1, 4 ]
      -
         sv_count: 2
         rho: 0.
         alpha: [ 1.0014816388940209e+00, -1.0014816388940209e+00 ]
         index: [ 1, 8 ]
      -
         sv_count: 2
         rho: 0.
         alpha: [ 1.0001222044538933e+00, -1.0001222044538933e+00 ]
         index: [ 1, 2 ]
      -
         sv_count: 2
         rho: 0.
         alpha: [ 1.0000206832395246e+00, -1.0000206832395246e+00 ]
         index: [ 1, 6 ]
      -
         sv_count: 2
         rho: 0.
         alpha: [ 1.0002404433314773e+00, -1.0002404433314773e+00 ]
         index: [ 4, 8 ]
      -
         sv_count: 2
         rho: 0.
         alpha: [ 1.0008242361826500e+00, -1.0008242361826500e+00 ]
         index: [ 4, 2 ]
      -
         sv_count: 2
         rho: 0.
         alpha: [ 1.0000244981091453e+00, -1.0000244981091453e+00 ]
         index: [ 4, 6 ]
      -
         sv_count: 2
         rho: 0.
         alpha: [ 1.0120502829958258e+00, -1.0120502829958258e+00 ]
         index: [ 8, 2 ]
      -
         sv_count: 2
         rho: 0.
         alpha: [ 1.0002335259152060e+00, -1.0002335259152060e+00 ]
         index: [ 8, 6 ]
      -
         sv_count: 2
         rho: 0.
         alpha: [ 1.0001096249580561e+00, -1.0001096249580561e+00 ]
         index: [ 2, 6 ]
